    0.800221439562925241E+00    0.912296500934815624E+00    0.195170217251215172E+01   -0.429379910688715150E+01    0.112064749491471316E+01    0.152696909935522207E+02   -0.214775657203916671E+05
    0.799802482619053734E+00    0.912255022225809564E+00    0.194834960174653826E+01   -0.425624418730484866E+01    0.112056117777119013E+01    0.152721927385213299E+02   -0.214774002393583360E+05
    0.798652704215554010E+00    0.912334552170172008E+00    0.194817157616006598E+01   -0.424221807792032646E+01    0.112137422406749199E+01    0.152198684691859185E+02   -0.214771058404805990E+05
    0.799246892773444628E+00    0.912321162300127719E+00    0.195044006338462150E+01   -0.424865055701641303E+01    0.112063556769333528E+01    0.152177442420037075E+02   -0.214769753678827619E+05
    0.799907286141435137E+00    0.912222268059032504E+00    0.194995247067444222E+01   -0.426927504484536069E+01    0.112075260285663592E+01    0.152596512851502695E+02   -0.214766593000860303E+05
    0.800189578988408812E+00    0.912452341568349978E+00    0.195162445991705003E+01   -0.430838190100240492E+01    0.112097812267628183E+01    0.152854820708827859E+02   -0.214766521183662480E+05
    0.799703700776037252E+00    0.912199288185055024E+00    0.194967315820475529E+01   -0.423128651290940461E+01    0.112020399858370467E+01    0.152242590179901391E+02   -0.214764316560697080E+05
    0.800770235903563332E+00    0.912182993779332651E+00    0.195245288223372149E+01   -0.427711665082895909E+01    0.112009626977046106E+01    0.152571011576366384E+02   -0.214762682296276544E+05
    0.801019195203805268E+00    0.912437573773643651E+00    0.194615722779061473E+01   -0.428104861777926438E+01    0.112017817072689740E+01    0.153667022113385698E+02   -0.214761623617004843E+05
    0.799670658166114379E+00    0.912081771814179487E+00    0.194425896241812879E+01   -0.423471458251364474E+01    0.112105162625222743E+01    0.152928629856138532E+02   -0.214756552256655195E+05
    0.799801963623856693E+00    0.912268481664399999E+00    0.195191631572852975E+01   -0.425407587847051882E+01    0.112036326102414874E+01    0.152148449527979341E+02   -0.214756542157645017E+05
    0.800626888009738025E+00    0.912429557394512480E+00    0.194727038413745857E+01   -0.427538561184791366E+01    0.112026594029293425E+01    0.153348060603864802E+02   -0.214756198819343990E+05
    0.799438829266318152E+00    0.912156699826417450E+00    0.194721109949182924E+01   -0.425077587130761358E+01    0.112118171230201069E+01    0.152593221528140077E+02   -0.214754221040231241E+05
    0.799621954489078135E+00    0.912439652902256149E+00    0.195220837924579693E+01   -0.425955010904725739E+01    0.112049108959099719E+01    0.152136241869178512E+02   -0.214753246526874354E+05
    0.799392971056629875E+00    0.912334634450985171E+00    0.195216338290921132E+01   -0.423506507712302138E+01    0.112016096865897996E+01    0.151846948007085771E+02   -0.214753233503903029E+05
    0.800472757798480927E+00    0.912556848658452879E+00    0.194886944651226068E+01   -0.429005163137025924E+01    0.112044476222757172E+01    0.153255937421647239E+02   -0.214749639748314985E+05
    0.799801685463716439E+00    0.912545021517375154E+00    0.194863067797707590E+01   -0.429694226235186960E+01    0.112111613853888592E+01    0.153097365197779407E+02   -0.214748731739609830E+05
    0.799892558824360833E+00    0.912206486284691476E+00    0.195333007113571688E+01   -0.423867441052955840E+01    0.111992152790210531E+01    0.151798181410493083E+02   -0.214747945450963998E+05
    0.800816039977348737E+00    0.912132072225991131E+00    0.195104502188135642E+01   -0.428648934232676826E+01    0.112053705636693790E+01    0.152788083446664587E+02   -0.214746045632245332E+05
    0.800360939251532955E+00    0.911915330654805789E+00    0.194955809083864606E+01   -0.424553896928128971E+01    0.112052506241665339E+01    0.152389044398595317E+02   -0.214746036924932341E+05
    0.800628437368544610E+00    0.912259964633519327E+00    0.195071000756835211E+01   -0.429657805366331580E+01    0.112064485342897169E+01    0.152929239511183219E+02   -0.214745883115623765E+05
    0.800972409451377487E+00    0.912171237196661711E+00    0.195267225329537464E+01   -0.431442028874331029E+01    0.112088898987988750E+01    0.152806195696857188E+02   -0.214745187688813603E+05
    0.800386714171173352E+00    0.912170995572620935E+00    0.194917561995273325E+01   -0.426780422335276999E+01    0.112052388201989972E+01    0.152784482130223473E+02   -0.214745103848333711E+05
    0.799824629060299941E+00    0.912524873873777786E+00    0.194883650680216758E+01   -0.427997837062286379E+01    0.112076520250352751E+01    0.152930742982353891E+02   -0.214744308930818406E+05
    0.799304005131331152E+00    0.912165413953090032E+00    0.194963686565070704E+01   -0.422036245825139922E+01    0.112042123052025233E+01    0.151942868250416261E+02   -0.214744302018360613E+05
    0.800824121618486373E+00    0.912285934059181680E+00    0.195002024279453190E+01   -0.430705444547466243E+01    0.112081841486821099E+01    0.153186080576353554E+02   -0.214744130551835115E+05
    0.800149039772248827E+00    0.912203076113774047E+00    0.194654321492750881E+01   -0.427413735974627418E+01    0.112106125898509301E+01    0.153138186416133966E+02   -0.214743223395455607E+05
    0.800339591006677509E+00    0.912292937912286606E+00    0.194912507911555477E+01   -0.427830392163401996E+01    0.112057301165510048E+01    0.152916822705515294E+02   -0.214743155694097768E+05
    0.799185206538066240E+00    0.912367037179995899E+00    0.195147158923908837E+01   -0.422744795718851307E+01    0.112021037238606347E+01    0.151801642334638931E+02   -0.214743115266177992E+05
    0.800564276097841088E+00    0.911836019062072789E+00    0.195122681566652445E+01   -0.424921392595322089E+01    0.112046820456435059E+01    0.152181106803015158E+02   -0.214741432897591949E+05
    0.800353557743795463E+00    0.912052886567763510E+00    0.195179849021952112E+01   -0.425422470084747495E+01    0.112034510340435123E+01    0.152191865118735787E+02   -0.214740721627526291E+05
    0.799260801555544020E+00    0.912489289784568003E+00    0.194525523481992701E+01   -0.423873391370382624E+01    0.112072938341932948E+01    0.152844097602303073E+02   -0.214740112157246731E+05
    0.800481797983676913E+00    0.912238274580006059E+00    0.194911263483393404E+01   -0.430278401360525731E+01    0.112109915650648029E+01    0.153113055706031105E+02   -0.214739800047917561E+05
    0.800113448391932991E+00    0.912135266391018051E+00    0.194963779127035086E+01   -0.425738383142425469E+01    0.112057808741322784E+01    0.152500561549954323E+02   -0.214739519904919325E+05
    0.799906452080666241E+00    0.912384184886157468E+00    0.194551048076463196E+01   -0.427025498305060847E+01    0.112101153695427569E+01    0.153255948530298518E+02   -0.214739135916227315E+05
    0.800402956680731137E+00    0.912252525622933241E+00    0.194689812212356950E+01   -0.425410262094069047E+01    0.112036457216236740E+01    0.153006803603783794E+02   -0.214739048191724251E+05
    0.800752412228359134E+00    0.912123996910759960E+00    0.195138276714644787E+01   -0.429103029291286298E+01    0.112076640053487520E+01    0.152705457121645587E+02   -0.214739023723301434E+05
    0.798972050043722959E+00    0.912402599470977016E+00    0.195173627522336601E+01   -0.421596461368301689E+01    0.112005806527990948E+01    0.151594922649370751E+02   -0.214738679131099234E+05
    0.800630793804851137E+00    0.912202979198867836E+00    0.195014816165895311E+01   -0.429684381075148991E+01    0.112093125828537765E+01    0.152943506051852829E+02   -0.214738665448148058E+05
    0.799978878656066428E+00    0.912217009973703585E+00    0.195363784304836363E+01   -0.424321904179984166E+01    0.111996099218115064E+01    0.151798530852873519E+02   -0.214738601550345156E+05
    0.799363483683439568E+00    0.912212039332353508E+00    0.194607706359745336E+01   -0.423208888903148939E+01    0.112087230555376705E+01    0.152570062782951155E+02   -0.214738402698756254E+05
    0.800092484027629780E+00    0.912193212245913654E+00    0.195065730828139117E+01   -0.425200071009645431E+01    0.112037845319049767E+01    0.152327395165084880E+02   -0.214738128646676705E+05
    0.800003344445567421E+00    0.912307211667234608E+00    0.195450106049085237E+01   -0.425209204640348926E+01    0.111999901020674519E+01    0.151786370949251150E+02   -0.214738054351019891E+05
    0.800297237047045584E+00    0.912016902173896526E+00    0.194890351359354597E+01   -0.425557244083575181E+01    0.112074301297192513E+01    0.152571961347038449E+02   -0.214737840745557842E+05
    0.800099519344536603E+00    0.912507801668394070E+00    0.194974237483164758E+01   -0.427484937370608620E+01    0.112047188832373368E+01    0.152820182982673991E+02   -0.214737386389466301E+05
    0.799263015847540004E+00    0.912167521217767674E+00    0.194904407792209189E+01   -0.420626076736066246E+01    0.112023031412168783E+01    0.151875122608531026E+02   -0.214736658541935903E+05
    0.800351028913290463E+00    0.912144488372367834E+00    0.194649244207785510E+01   -0.424967552133469972E+01    0.112052892197499432E+01    0.152950054509873805E+02   -0.214736571417835512E+05
    0.799956410564028886E+00    0.912207068441729829E+00    0.195269042083986433E+01   -0.424404273680454480E+01    0.112015603413957465E+01    0.151917488059557044E+02   -0.214736491215883398E+05
    0.799855922342281644E+00    0.912132363321574324E+00    0.194949551495147788E+01   -0.422688374186109073E+01    0.112019238446472214E+01    0.152167083928734588E+02   -0.214735833644801241E+05
    0.800384686629955766E+00    0.912231197680175798E+00    0.195001930094102693E+01   -0.425656680549391186E+01    0.112025079070961064E+01    0.152568867034563596E+02   -0.214735248884002067E+05
    0.798800769539145250E+00    0.912261562349663935E+00    0.195064387650893489E+01   -0.420287516025425134E+01    0.112027011008188371E+01    0.151494972031204682E+02   -0.214734407664775608E+05
    0.800380091946848893E+00    0.912205401155882889E+00    0.194683416874236714E+01   -0.425331827020885456E+01    0.112048835702358085E+01    0.152970498100629744E+02   -0.214734340455477213E+05
    0.799282113385313409E+00    0.912289807486658777E+00    0.195446108384636585E+01   -0.419309119335144143E+01    0.111937317852349905E+01    0.151048149756077450E+02   -0.214734166354826812E+05
    0.799050509538002274E+00    0.912102618832290601E+00    0.195383159261198625E+01   -0.420314643789085451E+01    0.112014584999779032E+01    0.151014005572620196E+02   -0.214734125378045755E+05
    0.799589800827567032E+00    0.912162416085345873E+00    0.195293650801176200E+01   -0.420809601030653102E+01    0.111974132719455555E+01    0.151432976521972051E+02   -0.214733595436740688E+05
    0.799669468423605423E+00    0.912297220873469206E+00    0.195311826204422090E+01   -0.423280552952103406E+01    0.111991906299142530E+01    0.151711304344334650E+02   -0.214732964876136393E+05
    0.800556916141502484E+00    0.911970417612181117E+00    0.195006052427007992E+01   -0.425498311583035171E+01    0.112044461287019348E+01    0.152462588909632846E+02   -0.214732663116980912E+05
    0.799732382527144736E+00    0.912118610601708180E+00    0.195569640914405785E+01   -0.420571449314796286E+01    0.111948339047689460E+01    0.151017304470652736E+02   -0.214732202421103611E+05
    0.799599838511744210E+00    0.912505289951439647E+00    0.195277958601335833E+01   -0.425658490175541004E+01    0.112028192905294888E+01    0.152026770395132598E+02   -0.214731204436742155E+05
    0.800921691567364036E+00    0.911879712165243217E+00    0.195049418412110209E+01   -0.424697775510377618E+01    0.112021494222114892E+01    0.152373863512729173E+02   -0.214730789938961680E+05
    0.800015113228898400E+00    0.912173177308768235E+00    0.194682983111882901E+01   -0.425008366970553109E+01    0.112069871889950479E+01    0.152784898832859302E+02   -0.214730601066872914E+05
    0.799860673080612372E+00    0.912097810086712313E+00    0.195249489649348296E+01   -0.423836362576360504E+01    0.112044734979157878E+01    0.151748900204420103E+02   -0.214730069817555159E+05
    0.799874033328290324E+00    0.912392207087116991E+00    0.195140086967299009E+01   -0.426112952843284187E+01    0.112049511388339540E+01    0.152284785627618824E+02   -0.214729997243956132E+05
    0.799874033328290324E+00    0.912392207087116991E+00    0.195140086967299009E+01   -0.426112952843284187E+01    0.112049511388339540E+01    0.152284785627618824E+02   -0.214729997243956132E+05
    0.799742158193765817E+00    0.912226317641977813E+00    0.195281912954723680E+01   -0.424592544697634189E+01    0.112037893195450322E+01    0.151817158441842359E+02   -0.214729883477109579E+05
    0.799586148283445652E+00    0.912436611946376597E+00    0.195303670403115381E+01   -0.425112173703758778E+01    0.112029309345713712E+01    0.151889752495699888E+02   -0.214729662303067671E+05
    0.799532792601304720E+00    0.912031323862451559E+00    0.195149206187771940E+01   -0.421426040287374182E+01    0.112023329417324380E+01    0.151588109806101059E+02   -0.214729475568065936E+05
    0.799059424411240116E+00    0.912117275311808529E+00    0.195174280193082783E+01   -0.419148126660185660E+01    0.111999565776553522E+01    0.151247665872307913E+02   -0.214729316102248195E+05
    0.799578505031735887E+00    0.912174810231210609E+00    0.195039896585028849E+01   -0.422616290835940056E+01    0.112037872897097235E+01    0.151932927067288119E+02   -0.214729105145288959E+05
    0.800148674646816715E+00    0.912291255655049982E+00    0.195303213516668905E+01   -0.426515104822220437E+01    0.112036494887968985E+01    0.152114895730127646E+02   -0.214729089472462438E+05
    0.798797446676477563E+00    0.912075485211684134E+00    0.195320699969201184E+01   -0.417121624864654805E+01    0.111978507408153538E+01    0.150745032128763317E+02   -0.214728898817558729E+05
    0.799681786451051480E+00    0.912192612131090708E+00    0.195389845867733025E+01   -0.423239174880294033E+01    0.112008070071830201E+01    0.151514694065134119E+02   -0.214728713339230671E+05
    0.799822008377820026E+00    0.912220899611122960E+00    0.195265271390516215E+01   -0.423523904892265346E+01    0.112005413191780656E+01    0.151795390729105417E+02   -0.214727781850495267E+05
    0.799822008377820026E+00    0.912220899611122960E+00    0.195265271390516215E+01   -0.423523904892265346E+01    0.112005413191780656E+01    0.151795390729105417E+02   -0.214727781850495267E+05
    0.799551040631737209E+00    0.912228573343153215E+00    0.195287919778811081E+01   -0.423146797167699784E+01    0.112022788915065763E+01    0.151624909526742240E+02   -0.214727642908537746E+05
    0.799483859577875933E+00    0.912374411196972934E+00    0.195055876543199092E+01   -0.424733083044600246E+01    0.112059769527651132E+01    0.152148381357672449E+02   -0.214727542723187544E+05
    0.800795527238914673E+00    0.912110340277025755E+00    0.194733289061782666E+01   -0.426635809349651396E+01    0.112055840330835688E+01    0.153080073431778594E+02   -0.214727134438098474E+05
    0.799558731378333221E+00    0.912389547016483116E+00    0.195353639154924474E+01   -0.425228633796098698E+01    0.112045460532336572E+01    0.151752566537222577E+02   -0.214727085743622010E+05
    0.798619283628704935E+00    0.912298836685834780E+00    0.195308166995400678E+01   -0.418438491782515687E+01    0.111985900079142753E+01    0.150927947583948203E+02   -0.214727049459068694E+05
    0.799712587206304448E+00    0.912258131600315991E+00    0.195228495081350983E+01   -0.421662096725821556E+01    0.111975269176570169E+01    0.151674361581885506E+02   -0.214726805652688563E+05
    0.799712587206304448E+00    0.912258131600315991E+00    0.195228495081350983E+01   -0.421662096725821556E+01    0.111975269176570169E+01    0.151674361581885506E+02   -0.214726805652688563E+05
    0.799386349451655320E+00    0.912105834677304217E+00    0.195429936813273786E+01   -0.420432312464499081E+01    0.111987400524753911E+01    0.151068378515433128E+02   -0.214726741889052064E+05
    0.800084570074497847E+00    0.912404669799523504E+00    0.194898536343029471E+01   -0.426493941450898895E+01    0.112055410475081541E+01    0.152752506827400012E+02   -0.214726480923689451E+05
    0.799314015975166825E+00    0.912174022463105638E+00    0.195322998034005324E+01   -0.421601971823185728E+01    0.112022344428656373E+01    0.151312748345666890E+02   -0.214726004521602554E+05
    0.799912352508361124E+00    0.912305194181227241E+00    0.195069836166756905E+01   -0.426169981952078736E+01    0.112065148207266718E+01    0.152349179532651533E+02   -0.214725231566028342E+05
    0.800001052303949578E+00    0.912317701372379442E+00    0.195265285824026713E+01   -0.424403055922519279E+01    0.111998336616781202E+01    0.151974256469493660E+02   -0.214724901941249991E+05
    0.799832911861567908E+00    0.912085710519800030E+00    0.195234678542097573E+01   -0.421285325271826849E+01    0.111982789921743042E+01    0.151577094417890006E+02   -0.214724848021657126E+05
    0.799393205240590987E+00    0.912185312426275319E+00    0.195151444125648776E+01   -0.423132792665985846E+01    0.112059017412575579E+01    0.151718780808483960E+02   -0.214724804237787939E+05
    0.799291084337724556E+00    0.912300370314149678E+00    0.195470880525012980E+01   -0.422482915968160277E+01    0.112014429263012749E+01    0.151209462042214486E+02   -0.214723493912390768E+05
    0.799291084337724556E+00    0.912300370314149678E+00    0.195470880525012980E+01   -0.422482915968160277E+01    0.112014429263012749E+01    0.151209462042214486E+02   -0.214723493912390768E+05
    0.799636237263062100E+00    0.912134667243236108E+00    0.195153202461700026E+01   -0.422086262755124686E+01    0.112016397173675886E+01    0.151714752541191249E+02   -0.214723399477651255E+05
    0.799636237263062100E+00    0.912134667243236108E+00    0.195153202461700026E+01   -0.422086262755124686E+01    0.112016397173675886E+01    0.151714752541191249E+02   -0.214723399477651255E+05
    0.799476474120297098E+00    0.912263877376704668E+00    0.195474459234027287E+01   -0.423167586590289879E+01    0.112015014820349279E+01    0.151312954015367325E+02   -0.214723396539753339E+05
    0.799476474120297098E+00    0.912263877376704668E+00    0.195474459234027287E+01   -0.423167586590289879E+01    0.112015014820349279E+01    0.151312954015367325E+02   -0.214723396539753339E+05
    0.799048130780972699E+00    0.912233028898586706E+00    0.195186706655027464E+01   -0.420671081583174100E+01    0.112021119169503702E+01    0.151388024290476846E+02   -0.214723058327232648E+05
    0.799048130780972699E+00    0.912233028898586706E+00    0.195186706655027464E+01   -0.420671081583174100E+01    0.112021119169503702E+01    0.151388024290476846E+02   -0.214723058327232648E+05
    0.799463356787263990E+00    0.912267390731718586E+00    0.195305016719405877E+01   -0.422461684739576260E+01    0.112013708161690606E+01    0.151517574216355726E+02   -0.214723036945618551E+05
    0.799463356787263990E+00    0.912267390731718586E+00    0.195305016719405877E+01   -0.422461684739576260E+01    0.112013708161690606E+01    0.151517574216355726E+02   -0.214723036945618551E+05
    0.800046450893944439E+00    0.912257073515545303E+00    0.195020007899929260E+01   -0.424350858219548233E+01    0.112021932362832288E+01    0.152303595082987524E+02   -0.214722465161469481E+05
    0.800522106149568202E+00    0.912077100983577305E+00    0.194927752940475130E+01   -0.425415807622858821E+01    0.112038346019153745E+01    0.152587290056132332E+02   -0.214722370516441515E+05
    0.799904983659239122E+00    0.912224185708606417E+00    0.194967150927165656E+01   -0.423863111846783802E+01    0.112037437762371650E+01    0.152265667473051955E+02   -0.214722296570505896E+05
    0.799642675652540547E+00    0.912283756524276956E+00    0.195483303337855596E+01   -0.421220745662092977E+01    0.111953160122873907E+01    0.151236306864046206E+02   -0.214722253789080169E+05
    0.799642675652540547E+00    0.912283756524276956E+00    0.195483303337855596E+01   -0.421220745662092977E+01    0.111953160122873907E+01    0.151236306864046206E+02   -0.214722253789080169E+05
    0.799261228367058152E+00    0.912071866772575901E+00    0.195198819806320567E+01   -0.419451458318353154E+01    0.112001497591081600E+01    0.151257081689786244E+02   -0.214721374469581206E+05
    0.799226257403622853E+00    0.912206157258670935E+00    0.195074280620254381E+01   -0.422269227884999676E+01    0.112056140493338807E+01    0.151715361745636628E+02   -0.214721059447830739E+05
    0.800846123178471814E+00    0.912000366957488318E+00    0.194972031287677527E+01   -0.424880412842734057E+01    0.112018775594629849E+01    0.152524592313111320E+02   -0.214720784607851019E+05
    0.799008728881764441E+00    0.912147794131280998E+00    0.195303498474134241E+01   -0.418133559286544099E+01    0.111976922256752776E+01    0.150945139041674885E+02   -0.214720775569871366E+05
    0.800053207359635365E+00    0.912221251290622370E+00    0.195209733693668808E+01   -0.424840479983513220E+01    0.112023534506036837E+01    0.152042018227069100E+02   -0.214720640799461871E+05
    0.800337157657891041E+00    0.912185715250474205E+00    0.194718786585046955E+01   -0.426060301519766504E+01    0.112065779048762049E+01    0.152922474996892817E+02   -0.214720635448013345E+05
    0.800337157657891041E+00    0.912185715250474205E+00    0.194718786585046955E+01   -0.426060301519766504E+01    0.112065779048762049E+01    0.152922474996892817E+02   -0.214720635448013345E+05
    0.799811624610587302E+00    0.912536148373424116E+00    0.195172676971285930E+01   -0.427152019426553142E+01    0.112055759041619529E+01    0.152350006707341574E+02   -0.214720517989744840E+05
    0.799380739182907973E+00    0.912268492298374811E+00    0.195210152410544935E+01   -0.422860057525105049E+01    0.112036514630880912E+01    0.151651359491740472E+02   -0.214720204964774712E+05
    0.799380739182907973E+00    0.912268492298374811E+00    0.195210152410544935E+01   -0.422860057525105049E+01    0.112036514630880912E+01    0.151651359491740472E+02   -0.214720204964774712E+05
    0.799747116339865727E+00    0.912250774344662951E+00    0.195440463628982952E+01   -0.424162572343920274E+01    0.112020915489379691E+01    0.151522449932219345E+02   -0.214719912609926287E+05
    0.800459942297598204E+00    0.912196890246490644E+00    0.195030873405265037E+01   -0.425572514432969307E+01    0.112027604653360835E+01    0.152482028842430051E+02   -0.214719575915575115E+05
    0.800672523024715588E+00    0.912076023928735991E+00    0.195049672547084918E+01   -0.425380672090541800E+01    0.112024383805160666E+01    0.152440228563033102E+02   -0.214719124245867606E+05
    0.800672523024715588E+00    0.912076023928735991E+00    0.195049672547084918E+01   -0.425380672090541800E+01    0.112024383805160666E+01    0.152440228563033102E+02   -0.214719124245867606E+05
    0.799608772457581551E+00    0.912150074725952775E+00    0.194941005143857615E+01   -0.421508613928666698E+01    0.112023993335400784E+01    0.151960134691336215E+02   -0.214719066082840545E+05
    0.799608772457581551E+00    0.912150074725952775E+00    0.194941005143857615E+01   -0.421508613928666698E+01    0.112023993335400784E+01    0.151960134691336215E+02   -0.214719066082840545E+05
    0.799860654422410278E+00    0.912024840171192896E+00    0.195066798274536901E+01   -0.422667396352931135E+01    0.112034757253337580E+01    0.151892797992420707E+02   -0.214718950028078070E+05
    0.799406400785390048E+00    0.912110237631577503E+00    0.195108960778007523E+01   -0.419502961624506820E+01    0.111989462598298584E+01    0.151459049078487560E+02   -0.214718496933553761E+05
    0.799734186816625225E+00    0.912244438784020284E+00    0.195225150646660950E+01   -0.424760145098093567E+01    0.112055065698767797E+01    0.151872181281559211E+02   -0.214718470064708672E+05
    0.799734186816625225E+00    0.912244438784020284E+00    0.195225150646660950E+01   -0.424760145098093567E+01    0.112055065698767797E+01    0.151872181281559211E+02   -0.214718470064708672E+05
    0.799443618719244853E+00    0.912114236209120022E+00    0.195464814942827836E+01   -0.420214594942205277E+01    0.111974599045030732E+01    0.151006929950315225E+02   -0.214718314592390489E+05
    0.799052963180740150E+00    0.912249894874252010E+00    0.195399236189439995E+01   -0.418671006410924207E+01    0.111960782549540894E+01    0.150916441792971039E+02   -0.214718179814559626E+05
    0.799052963180740150E+00    0.912249894874252010E+00    0.195399236189439995E+01   -0.418671006410924207E+01    0.111960782549540894E+01    0.150916441792971039E+02   -0.214718179814559626E+05
    0.799117729583347369E+00    0.912176302485134927E+00    0.195103987869946338E+01   -0.421660103649716334E+01    0.112060137748491018E+01    0.151545687444920514E+02   -0.214718120164473039E+05
    0.799764031245132401E+00    0.912184368290814951E+00    0.195329233419932757E+01   -0.421493802612061685E+01    0.111976365471482309E+01    0.151463750020767396E+02   -0.214717863531757357E+05
    0.799764031245132401E+00    0.912184368290814951E+00    0.195329233419932757E+01   -0.421493802612061685E+01    0.111976365471482309E+01    0.151463750020767396E+02   -0.214717863531757357E+05
    0.799712157350793262E+00    0.912447751792989536E+00    0.195120887171233548E+01   -0.425864360493293770E+01    0.112059697257855229E+01    0.152219701278029227E+02   -0.214717809694513271E+05
    0.799080184879938926E+00    0.912069774192300176E+00    0.195268906561568967E+01   -0.417966790680920219E+01    0.111982559821434413E+01    0.150956804907823887E+02   -0.214717646195893212E+05
    0.799080184879938926E+00    0.912069774192300176E+00    0.195268906561568967E+01   -0.417966790680920219E+01    0.111982559821434413E+01    0.150956804907823887E+02   -0.214717646195893212E+05
    0.799653138153706422E+00    0.912077419683642865E+00    0.195226790905912106E+01   -0.422575463013756458E+01    0.112042676344306003E+01    0.151569892803737609E+02   -0.214717625764179065E+05
    0.799910434588081642E+00    0.912107415702404611E+00    0.195455374863531461E+01   -0.421404062892945852E+01    0.111964950238512451E+01    0.151276062240328137E+02   -0.214717486736709798E+05
    0.799659939123092300E+00    0.912115586198418704E+00    0.195166379830401104E+01   -0.422325525857135808E+01    0.112022995919876278E+01    0.151693834704272863E+02   -0.214716991012971339E+05
    0.799757012648221632E+00    0.912260374491864479E+00    0.195269024601619079E+01   -0.424100279540566483E+01    0.112024399345555947E+01    0.151796125718061035E+02   -0.214716855083474366E+05
    0.799760665545230509E+00    0.912256929230008784E+00    0.195207430352311029E+01   -0.423887397406615740E+01    0.112033100466759805E+01    0.151852901637291211E+02   -0.214716582951548371E+05
    0.799084381448922798E+00    0.912267079619586974E+00    0.195151564120342513E+01   -0.421911679332933964E+01    0.112053749795420488E+01    0.151524839050829243E+02   -0.214716483458191033E+05
    0.799084381448922798E+00    0.912267079619586974E+00    0.195151564120342513E+01   -0.421911679332933964E+01    0.112053749795420488E+01    0.151524839050829243E+02   -0.214716483458191033E+05
    0.799645402442125786E+00    0.912167689058700493E+00    0.195000217001889387E+01   -0.421133156618431492E+01    0.112013305137441610E+01    0.151848241766046925E+02   -0.214716445558139458E+05
    0.799169317364087917E+00    0.912233214895322830E+00    0.195359040398002781E+01   -0.419314599940584998E+01    0.111973734578995998E+01    0.151050134480461793E+02   -0.214716373107925683E+05
    0.799871319658373992E+00    0.912181179577124079E+00    0.194879696851782613E+01   -0.422919830022175169E+01    0.112039252281898727E+01    0.152256227077101300E+02   -0.214716316449812730E+05
    0.800165920327973623E+00    0.912157148329514111E+00    0.194730602302766509E+01   -0.424547182843954651E+01    0.112058179249582235E+01    0.152698006177566352E+02   -0.214716236092855033E+05
    0.799585660251443286E+00    0.912430262037514539E+00    0.195302536005206395E+01   -0.424709451999376242E+01    0.112028363193612579E+01    0.151815687855820247E+02   -0.214715966030413329E+05
    0.799585660251443286E+00    0.912430262037514539E+00    0.195302536005206395E+01   -0.424709451999376242E+01    0.112028363193612579E+01    0.151815687855820247E+02   -0.214715966030413329E+05
    0.800023784558295148E+00    0.912446655730639655E+00    0.195174913714746023E+01   -0.427367443464001084E+01    0.112062036361678152E+01    0.152363188335050914E+02   -0.214715793657708637E+05
    0.800669030417601846E+00    0.911968073535674328E+00    0.194738919654034670E+01   -0.425103060559375123E+01    0.112056642084364388E+01    0.152795480353474051E+02   -0.214715632072936751E+05
    0.800669030417601846E+00    0.911968073535674328E+00    0.194738919654034670E+01   -0.425103060559375123E+01    0.112056642084364388E+01    0.152795480353474051E+02   -0.214715632072936751E+05
    0.799091281368426110E+00    0.912086310049657234E+00    0.195234716604857583E+01   -0.418853349019441712E+01    0.112005707008676358E+01    0.151075325961782951E+02   -0.214715350848821945E+05
    0.799091281368426110E+00    0.912086310049657234E+00    0.195234716604857583E+01   -0.418853349019441712E+01    0.112005707008676358E+01    0.151075325961782951E+02   -0.214715350848821945E+05
    0.798891802032297704E+00    0.912166063511432479E+00    0.195260656733529947E+01   -0.417047370739539502E+01    0.111967729098659019E+01    0.150871041273817745E+02   -0.214715336235485738E+05
    0.799618467080357220E+00    0.912134596138728160E+00    0.195475026301460963E+01   -0.419952558347269100E+01    0.111956431148557489E+01    0.151029804702494665E+02   -0.214714848123189076E+05
    0.799952641090239780E+00    0.912240980448950523E+00    0.195209520728385133E+01   -0.424289973604937209E+01    0.112028228028609611E+01    0.151938597170347478E+02   -0.214714688293650543E+05
    0.799699658328858476E+00    0.912360624266573828E+00    0.195110472732264650E+01   -0.424628010136668710E+01    0.112053945246632169E+01    0.152063103145628702E+02   -0.214714242359817727E+05
    0.799424789266007352E+00    0.912113064358091030E+00    0.195135241105976620E+01   -0.419531024360334648E+01    0.111989789440013565E+01    0.151418429732307089E+02   -0.214714065273794331E+05
    0.799424789266007352E+00    0.912113064358091030E+00    0.195135241105976620E+01   -0.419531024360334648E+01    0.111989789440013565E+01    0.151418429732307089E+02   -0.214714065273794331E+05
    0.799820135269818877E+00    0.912010386807632467E+00    0.195015678527681313E+01   -0.420958181387177977E+01    0.112013030955968995E+01    0.151788358950664115E+02   -0.214714043787583469E+05
    0.799820135269818877E+00    0.912010386807632467E+00    0.195015678527681313E+01   -0.420958181387177977E+01    0.112013030955968995E+01    0.151788358950664115E+02   -0.214714043787583469E+05
    0.799557735102172984E+00    0.912123282940263236E+00    0.195262659711456976E+01   -0.420923670535032901E+01    0.112000627422958443E+01    0.151391094603640042E+02   -0.214713953754273571E+05
    0.799482020812082084E+00    0.912183801065287736E+00    0.194970791780071018E+01   -0.421408429921807137E+01    0.112028933142897880E+01    0.151868025853811091E+02   -0.214713953441750273E+05
    0.799516192412470517E+00    0.912204601827542261E+00    0.194972823881648583E+01   -0.422919703299520577E+01    0.112056796027121508E+01    0.152005165776493314E+02   -0.214713937090458821E+05
    0.799729875808266044E+00    0.912344796914278278E+00    0.194998244119067943E+01   -0.425252011410498287E+01    0.112078745663923929E+01    0.152268330691148979E+02   -0.214713934005587871E+05
    0.799729875808266044E+00    0.912344796914278278E+00    0.194998244119067943E+01   -0.425252011410498287E+01    0.112078745663923929E+01    0.152268330691148979E+02   -0.214713934005587871E+05
    0.799761112534158158E+00    0.912339084919570942E+00    0.195132859401889203E+01   -0.425929989969682588E+01    0.112069369076439429E+01    0.152159092579555164E+02   -0.214713737875540974E+05
    0.799761112534158158E+00    0.912339084919570942E+00    0.195132859401889203E+01   -0.425929989969682588E+01    0.112069369076439429E+01    0.152159092579555164E+02   -0.214713737875540974E+05
    0.799274720919314063E+00    0.912356576750052439E+00    0.195271747836859944E+01   -0.423161701011301972E+01    0.112036435280918911E+01    0.151572289217607565E+02   -0.214713529894967178E+05
    0.799819387593140974E+00    0.912237815521879547E+00    0.195081087309191248E+01   -0.424056694352865726E+01    0.112048360552463389E+01    0.152048177440635968E+02   -0.214713411455902387E+05
    0.799761049856522632E+00    0.912185751691470426E+00    0.195103684221450102E+01   -0.421043158451886423E+01    0.111986337079440990E+01    0.151740500221958321E+02   -0.214713400560094378E+05
    0.799490854222202785E+00    0.912277882886914027E+00    0.195202426933948758E+01   -0.423445882428520459E+01    0.112038256686853277E+01    0.151741103844207323E+02   -0.214713253632217165E+05
    0.800573988223279187E+00    0.912127283201528805E+00    0.194930181932059798E+01   -0.425163490091554053E+01    0.112021646485780191E+01    0.152575067144845455E+02   -0.214713141896915477E+05
    0.799567258148929483E+00    0.912231531485660829E+00    0.194963426968827203E+01   -0.423622441070753109E+01    0.112072755542445424E+01    0.152083021906461102E+02   -0.214712843426503714E+05
    0.801207046867972394E+00    0.911973928417577517E+00    0.194897144660822397E+01   -0.427498259293557581E+01    0.112042616742802270E+01    0.152941294094506635E+02   -0.214712632752292047E+05
    0.799601719661724886E+00    0.912010527936905180E+00    0.195143936132234685E+01   -0.421119219943656375E+01    0.112029268133716009E+01    0.151525260370817723E+02   -0.214712443499409128E+05
    0.799475230985667196E+00    0.912300527438172248E+00    0.195163090923303439E+01   -0.423356161208536186E+01    0.112037686112445667E+01    0.151799163730758941E+02   -0.214712355551860055E+05
    0.799537312310595993E+00    0.912240486131050021E+00    0.195198704750194674E+01   -0.423154630228988538E+01    0.112037850956689455E+01    0.151711461290798759E+02   -0.214712331133857297E+05
    0.800109703601808775E+00    0.912073104775181553E+00    0.194637918431169599E+01   -0.423664431385912188E+01    0.112062828092624445E+01    0.152662172984849427E+02   -0.214711990290326066E+05
    0.799764516541914716E+00    0.912162150942473327E+00    0.195149794083178585E+01   -0.422868854317620091E+01    0.112022570470550753E+01    0.151812042003571399E+02   -0.214711929004887352E+05
    0.799749400284195389E+00    0.912026712860757427E+00    0.195202919393300722E+01   -0.421094457971246428E+01    0.112005795458496005E+01    0.151505853995806774E+02   -0.214711855177380276E+05
    0.799445990425716957E+00    0.912109396024761265E+00    0.195360938628583036E+01   -0.420371791884662649E+01    0.111992269449022808E+01    0.151148881523871665E+02   -0.214711743687204216E+05
    0.799650806984512741E+00    0.912329373460462500E+00    0.195093002648851854E+01   -0.424524187591273616E+01    0.112062980294178516E+01    0.152035850384272919E+02   -0.214711334050548248E+05
    0.799986284541098769E+00    0.912184325962296150E+00    0.195097265423465638E+01   -0.424766562604903974E+01    0.112055029730624289E+01    0.152108472826938073E+02   -0.214711302393027399E+05
    0.799986722752121793E+00    0.912235080653886587E+00    0.195032548688835239E+01   -0.424123898434940472E+01    0.112035995783381925E+01    0.152190990260719552E+02   -0.214711058839624711E+05
    0.799986722752121793E+00    0.912235080653886587E+00    0.195032548688835239E+01   -0.424123898434940472E+01    0.112035995783381925E+01    0.152190990260719552E+02   -0.214711058839624711E+05
    0.799549026862928613E+00    0.912349169008529692E+00    0.194967881811608112E+01   -0.424689656604449972E+01    0.112076542429216897E+01    0.152223117459571338E+02   -0.214710990938137911E+05
    0.799468550310420412E+00    0.912126390859436920E+00    0.195151419901612533E+01   -0.420827372987190085E+01    0.112014579632177425E+01    0.151510476811235772E+02   -0.214710983480624163E+05
    0.799398548935963404E+00    0.912146293468796054E+00    0.194917232967652154E+01   -0.422354425153396473E+01    0.112067853894882408E+01    0.151957436021294150E+02   -0.214710889832614266E+05
    0.799018540384315301E+00    0.912229449564143868E+00    0.195297054362734634E+01   -0.418655720875885429E+01    0.111986691865588783E+01    0.151001017627187739E+02   -0.214710825024876576E+05
    0.799706489468592352E+00    0.912014368547738430E+00    0.195205271397301905E+01   -0.419717692145581900E+01    0.111990660534297692E+01    0.151347619633894688E+02   -0.214710735381433369E+05
    0.799636959453263074E+00    0.912253974349354180E+00    0.195091506940975967E+01   -0.423492064315705274E+01    0.112049361613145737E+01    0.151923476323948687E+02   -0.214710639627064957E+05
    0.799922972992167303E+00    0.912038813233345458E+00    0.195171171603447258E+01   -0.421078991228491617E+01    0.111992607000382005E+01    0.151613933021024891E+02   -0.214710597843494797E+05
    0.799716008838206704E+00    0.912137699060820317E+00    0.195174501434159131E+01   -0.422998920661881250E+01    0.112031698748566799E+01    0.151747802647866266E+02   -0.214710529227305815E+05
    0.799304033677127990E+00    0.912252894423648764E+00    0.195114062921221243E+01   -0.420052047547672469E+01    0.111997858878608247E+01    0.151509455817225209E+02   -0.214710310420983624E+05
    0.799569657189039162E+00    0.912177301615197944E+00    0.195026110743730463E+01   -0.421480583895607630E+01    0.112022449074043551E+01    0.151808938766000558E+02   -0.214710258265548364E+05
    0.799398483266124060E+00    0.912209269322798555E+00    0.195184244569399445E+01   -0.421555375519027553E+01    0.112018105081713970E+01    0.151543547583517615E+02   -0.214710186060015767E+05
    0.799596253532007140E+00    0.912066753160068466E+00    0.195360178129383799E+01   -0.420120927174508552E+01    0.111987393660333767E+01    0.151143047478419454E+02   -0.214709994438610702E+05
    0.799761534016049325E+00    0.912112430662023077E+00    0.195190449937587052E+01   -0.420486679987262413E+01    0.111982452203509464E+01    0.151516601809043827E+02   -0.214709627372604809E+05
    0.799778993141671890E+00    0.912224755662018438E+00    0.195177913563486305E+01   -0.423262485632207763E+01    0.112022641574743020E+01    0.151830862833585876E+02   -0.214709566189321558E+05
    0.799530750913399757E+00    0.912200826258127373E+00    0.194866096717202009E+01   -0.423013138625601304E+01    0.112083498830823514E+01    0.152117192885088333E+02   -0.214709530732745370E+05
    0.799141520147248485E+00    0.912205872722315902E+00    0.195236306850361996E+01   -0.419757448668663624E+01    0.112005863032570119E+01    0.151212288751690789E+02   -0.214709497412951605E+05
    0.799897088703932724E+00    0.911994076534587084E+00    0.195180522576737170E+01   -0.420885986229967646E+01    0.112000438568889304E+01    0.151541693884286843E+02   -0.214709320674434348E+05
    0.799942970231368733E+00    0.911989066374771395E+00    0.195408298481984599E+01   -0.420983375065876331E+01    0.111982491043325805E+01    0.151224481234633679E+02   -0.214709123457470960E+05
    0.799852623148233022E+00    0.912261894766280279E+00    0.195017415807546834E+01   -0.424532512630911363E+01    0.112060042983840291E+01    0.152189280938304794E+02   -0.214709086903915813E+05
    0.799230590973280641E+00    0.912044399829629704E+00    0.195022822577678689E+01   -0.420790934213654211E+01    0.112063435103029718E+01    0.151537896885266132E+02   -0.214709071962073504E+05
    0.799903401572038320E+00    0.912312231460303269E+00    0.195038162617737432E+01   -0.425452342503931646E+01    0.112065401494680872E+01    0.152278866537718471E+02   -0.214709064079053460E+05
    0.799673107994269827E+00    0.912214252624855337E+00    0.195032298941087889E+01   -0.423314718213334462E+01    0.112054124107756659E+01    0.151982299965910634E+02   -0.214708836393200181E+05
    0.800249651491114378E+00    0.912188806342846381E+00    0.195152200426611788E+01   -0.425348492879303919E+01    0.112036521692094126E+01    0.152177280200357519E+02   -0.214708639230485715E+05
    0.799352023112261278E+00    0.912331012549670195E+00    0.195041807157323910E+01   -0.423216797035992887E+01    0.112062074838923542E+01    0.151903111425974124E+02   -0.214708392779851565E+05
    0.800779183760536029E+00    0.912083616520290352E+00    0.194887268790345125E+01   -0.426344700542715316E+01    0.112040653873000617E+01    0.152768038762736058E+02   -0.214708300963376823E+05
    0.799352167546636849E+00    0.912045521450371544E+00    0.195128728469886825E+01   -0.420351155675112587E+01    0.112032622517707292E+01    0.151401480490018354E+02   -0.214708268532921429E+05
    0.799471229508515790E+00    0.912120016321236071E+00    0.195143419970539767E+01   -0.422491941689092076E+01    0.112061579530621569E+01    0.151611389042618949E+02   -0.214708238042718949E+05
    0.799587184756944680E+00    0.912284400309606336E+00    0.195168058255486354E+01   -0.423104498777044036E+01    0.112029112195813396E+01    0.151789881297908558E+02   -0.214708196994614082E+05
    0.800017327219745056E+00    0.912350477593987463E+00    0.195037179348399348E+01   -0.426294063950262458E+01    0.112067915703508869E+01    0.152406456279258062E+02   -0.214707078500579846E+05
    0.799855272723029032E+00    0.912296935033105716E+00    0.194939699722835669E+01   -0.425162702401007664E+01    0.112078324399523055E+01    0.152354614210972787E+02   -0.214705523496812093E+05
    0.799656342708949808E+00    0.912370999134110683E+00    0.195073680386211401E+01   -0.424588265101589002E+01    0.112057136780168287E+01    0.152088747051007154E+02   -0.214702518312503344E+05
    0.799656342708949808E+00    0.912370999134110683E+00    0.195073680386211401E+01   -0.424588265101589002E+01    0.112057136780168287E+01    0.152088747051007154E+02   -0.214702518312503344E+05
    0.799860853969530439E+00    0.912384535531842289E+00    0.195046062374895746E+01   -0.425510321958648241E+01    0.112051606612218912E+01    0.152309448844862860E+02   -0.214704841181445554E+05
    0.799643265847471696E+00    0.912224348746058622E+00    0.195024727131701026E+01   -0.423908036588144199E+01    0.112066530149439414E+01    0.152029191625843296E+02   -0.214704477265817186E+05
    0.799298670846370740E+00    0.912285129631493552E+00    0.194904868573855250E+01   -0.422493231754190646E+01    0.112067781355908380E+01    0.152000058565306357E+02   -0.214704349527673658E+05
    0.799630212963307940E+00    0.912387255157382837E+00    0.195113445741358826E+01   -0.423869062681609066E+01    0.112036856942827612E+01    0.151982834278038084E+02   -0.214704128382015442E+05
    0.799381846924678285E+00    0.912273184021648698E+00    0.194980547622555989E+01   -0.423470655343412261E+01    0.112084863562043302E+01    0.151965100820432610E+02   -0.214706225085506885E+05
    0.799208365021144118E+00    0.912291678879991186E+00    0.194924466228629467E+01   -0.421944800846487755E+01    0.112063521272001099E+01    0.151890547273482674E+02   -0.214702899272272225E+05
    0.799208365021144118E+00    0.912291678879991186E+00    0.194924466228629467E+01   -0.421944800846487755E+01    0.112063521272001099E+01    0.151890547273482674E+02   -0.214702899272272225E+05
    0.799837588322674264E+00    0.912250338258000615E+00    0.194974885881117355E+01   -0.424504259513509918E+01    0.112069579549104703E+01    0.152220140921917348E+02   -0.214705492914491879E+05
    0.799752478035051340E+00    0.912212589025043874E+00    0.194997922685914160E+01   -0.422302030144399065E+01    0.112030208632134509E+01    0.151968537066345473E+02   -0.214703403671592605E+05
    0.799568897390354749E+00    0.912210582907284739E+00    0.195061613838417269E+01   -0.423342673302447814E+01    0.112067951101287178E+01    0.151877904128891554E+02   -0.214708180239861467E+05
    0.799356745812566771E+00    0.912330997780148811E+00    0.195048224814487181E+01   -0.422871461314814212E+01    0.112054360040231749E+01    0.151864342511765233E+02   -0.214705997539875680E+05
    0.799700333851465217E+00    0.912322973396669124E+00    0.195051447146213497E+01   -0.424083601303082869E+01    0.112043900984314626E+01    0.152092234292736528E+02   -0.214703347012508020E+05
    0.800132234698642364E+00    0.912242562271504909E+00    0.195064010680346311E+01   -0.425458226771579096E+01    0.112046828228562312E+01    0.152301488231585758E+02   -0.214706562113520049E+05
    0.799971625046897117E+00    0.912106568626512959E+00    0.194956890228476087E+01   -0.422623546998690003E+01    0.112037842020577738E+01    0.152074287119512501E+02   -0.214704508796342343E+05
    0.800454467351201515E+00    0.912179244801639588E+00    0.194993864309482712E+01   -0.425531240894431129E+01    0.112029451292906335E+01    0.152486785978394490E+02   -0.214704697369091264E+05
    0.800454467351201515E+00    0.912179244801639588E+00    0.194993864309482712E+01   -0.425531240894431129E+01    0.112029451292906335E+01    0.152486785978394490E+02   -0.214704697369091264E+05
    0.800785921691772984E+00    0.912101414478179717E+00    0.194948109047678364E+01   -0.426477300396114245E+01    0.112040447751019245E+01    0.152707418062722375E+02   -0.214707134321185731E+05
    0.799921278944289327E+00    0.912123301459461966E+00    0.194941176952006168E+01   -0.422785397838715404E+01    0.112042049789328502E+01    0.152098360321994015E+02   -0.214699747869286075E+05
    0.799921278944289327E+00    0.912123301459461966E+00    0.194941176952006168E+01   -0.422785397838715404E+01    0.112042049789328502E+01    0.152098360321994015E+02   -0.214699747869286075E+05
    0.800686857536758723E+00    0.912149510186566870E+00    0.195040791780798006E+01   -0.427116580077730568E+01    0.112047500878801420E+01    0.152621741559881663E+02   -0.214707972802282166E+05
    0.800435734054170567E+00    0.912063852851344947E+00    0.194872426986683034E+01   -0.423832305083729644E+01    0.112025956331932863E+01    0.152437554691848458E+02   -0.214703138463392570E+05
    0.800435734054170567E+00    0.912063852851344947E+00    0.194872426986683034E+01   -0.423832305083729644E+01    0.112025956331932863E+01    0.152437554691848458E+02   -0.214703138463392570E+05
    0.800071522824426395E+00    0.912147682935897430E+00    0.194911834244115578E+01   -0.422712326859861687E+01    0.112022474863654553E+01    0.152201436036197855E+02   -0.214698863475964026E+05
    0.800071522824426395E+00    0.912147682935897430E+00    0.194911834244115578E+01   -0.422712326859861687E+01    0.112022474863654553E+01    0.152201436036197855E+02   -0.214698863475964026E+05
    0.800071522824426395E+00    0.912147682935897430E+00    0.194911834244115578E+01   -0.422712326859861687E+01    0.112022474863654553E+01    0.152201436036197855E+02   -0.214698863475964026E+05
    0.800343619212554813E+00    0.912216527051917914E+00    0.194981276179880680E+01   -0.425151177660069735E+01    0.112024881648644903E+01    0.152450356027138607E+02   -0.214704120233059366E+05
    0.800323804407486961E+00    0.912061723310386707E+00    0.194831028830155240E+01   -0.423664457096726377E+01    0.112039265937476618E+01    0.152444299138034118E+02   -0.214702315060942383E+05
    0.800323804407486961E+00    0.912061723310386707E+00    0.194831028830155240E+01   -0.423664457096726377E+01    0.112039265937476618E+01    0.152444299138034118E+02   -0.214702315060942383E+05
    0.799792675905505845E+00    0.912199308779792939E+00    0.195304083355758484E+01   -0.421645730138258301E+01    0.111986852306336737E+01    0.151489729569312264E+02   -0.214706920776733423E+05
    0.799369735978265439E+00    0.912190570750988305E+00    0.195254154204141761E+01   -0.419943303977961424E+01    0.111992275312681233E+01    0.151267077799241907E+02   -0.214705776999578193E+05
    0.799851825729602339E+00    0.912082982513892304E+00    0.195126438287827164E+01   -0.421391913347059344E+01    0.112009245865478668E+01    0.151680135384626311E+02   -0.214705256648077739E+05
    0.799598572715263245E+00    0.912044705484155727E+00    0.195223030394133668E+01   -0.421375383743576570E+01    0.112028240673924162E+01    0.151415769637766076E+02   -0.214702388649273744E+05
    0.799598572715263245E+00    0.912044705484155727E+00    0.195223030394133668E+01   -0.421375383743576570E+01    0.112028240673924162E+01    0.151415769637766076E+02   -0.214702388649273744E+05
    0.799402247159314072E+00    0.912090979728093054E+00    0.195292645349493288E+01   -0.420010370805669986E+01    0.112005632667773547E+01    0.151160937470305274E+02   -0.214704822226308061E+05
    0.799799411819815731E+00    0.911932814429139871E+00    0.195168815732504397E+01   -0.419471828404465530E+01    0.111992451196888920E+01    0.151360827480586657E+02   -0.214705937129918784E+05
    0.799653828325897820E+00    0.912182483775535902E+00    0.195347827877426972E+01   -0.422041838884701281E+01    0.112006611284699975E+01    0.151394050274635621E+02   -0.214707564697005146E+05
    0.799583335307170628E+00    0.912131938841472367E+00    0.195121663095513243E+01   -0.422085846504517104E+01    0.112036035234490705E+01    0.151677084875123924E+02   -0.214703941961315977E+05
    0.799897740352955466E+00    0.912090593087462209E+00    0.195144333222081556E+01   -0.422886245890985712E+01    0.112029798283847826E+01    0.151803785896895924E+02   -0.214705397901793731E+05
    0.799897740352955466E+00    0.912090593087462209E+00    0.195144333222081556E+01   -0.422886245890985712E+01    0.112029798283847826E+01    0.151803785896895924E+02   -0.214705397901793731E+05
    0.799544349380683528E+00    0.912130429689412714E+00    0.195169108044342177E+01   -0.422020340186890053E+01    0.112038425052676849E+01    0.151577285212267316E+02   -0.214704385864707510E+05
    0.799310030748445755E+00    0.912153714809759375E+00    0.195100939375139970E+01   -0.421175956279668107E+01    0.112045690067675419E+01    0.151521332497177141E+02   -0.214699490829408824E+05
    0.799310030748445755E+00    0.912153714809759375E+00    0.195100939375139970E+01   -0.421175956279668107E+01    0.112045690067675419E+01    0.151521332497177141E+02   -0.214699490829408824E+05
    0.799327766471789047E+00    0.912110781297469808E+00    0.194938870309916146E+01   -0.420811385179030317E+01    0.112053126733504138E+01    0.151728537943737845E+02   -0.214703560390262792E+05
    0.799232864279595390E+00    0.912093542036080396E+00    0.195003728160196266E+01   -0.420202830349607570E+01    0.112044421116858173E+01    0.151547109165106093E+02   -0.214705296046745680E+05
    0.799681249902219449E+00    0.912012505789899897E+00    0.195085671307707642E+01   -0.421618723417142238E+01    0.112038166979205855E+01    0.151668061688290745E+02   -0.214706944081942565E+05
    0.799536517395472046E+00    0.912173588113888822E+00    0.195082102972955562E+01   -0.422225089690339761E+01    0.112044805586293461E+01    0.151742977801239896E+02   -0.214704756829675316E+05
    0.799677233658721676E+00    0.912173496468474676E+00    0.195105404695362417E+01   -0.421901492109435505E+01    0.112027054637127410E+01    0.151729013849007046E+02   -0.214705349705995068E+05
    0.799677233658721676E+00    0.912173496468474676E+00    0.195105404695362417E+01   -0.421901492109435505E+01    0.112027054637127410E+01    0.151729013849007046E+02   -0.214705349705995068E+05
    0.799325949067366537E+00    0.912053389873167086E+00    0.195121466956793888E+01   -0.420412192123944539E+01    0.112041430943674558E+01    0.151382923799742777E+02   -0.214700979701069336E+05
    0.799697461608007032E+00    0.912003777358692536E+00    0.195045253258357976E+01   -0.421929239170131343E+01    0.112055923385748457E+01    0.151730200721741006E+02   -0.214705836697428822E+05
    0.799559383358044329E+00    0.911899702009080770E+00    0.194945179085417508E+01   -0.421155874765428617E+01    0.112072136181646531E+01    0.151711453116331789E+02   -0.214705570770299601E+05
    0.799532972385748053E+00    0.912206251087789188E+00    0.195164664561316203E+01   -0.422170728978103149E+01    0.112028703470424174E+01    0.151637481301128112E+02   -0.214701443650493311E+05
    0.799532972385748053E+00    0.912206251087789188E+00    0.195164664561316203E+01   -0.422170728978103149E+01    0.112028703470424174E+01    0.151637481301128112E+02   -0.214701443650493311E+05
    0.799267819926694045E+00    0.912099412291544343E+00    0.195101780105461931E+01   -0.419761143556090133E+01    0.112026442613484689E+01    0.151374149446953936E+02   -0.214703359693597849E+05
    0.799371351044646516E+00    0.912254442269321730E+00    0.195162868505729525E+01   -0.422261863218073330E+01    0.112042926470046011E+01    0.151610031799764009E+02   -0.214707839665359461E+05
    0.799538881780028632E+00    0.912021831682991890E+00    0.195118790293920696E+01   -0.421675420732523065E+01    0.112053381586950507E+01    0.151553503162975911E+02   -0.214703865690476050E+05
    0.799776486437377088E+00    0.912071777573836839E+00    0.195087291223545156E+01   -0.422284102332178435E+01    0.112043262795036980E+01    0.151762670096758949E+02   -0.214704539460521555E+05
    0.799776486437377088E+00    0.912071777573836839E+00    0.195087291223545156E+01   -0.422284102332178435E+01    0.112043262795036980E+01    0.151762670096758949E+02   -0.214704539460521555E+05
